digraph Tree {
node [shape=box, style="filled, rounded", color="black", fontname=helvetica] ;
edge [fontname=helvetica] ;
0 [label="petal width (cm) <= 0.8\ngini = 0.67\nsamples = 97\nvalue = [49, 49, 52]\nclass = virginica", fillcolor="#fbf9fe"] ;
1 [label="gini = 0.0\nsamples = 35\nvalue = [49, 0, 0]\nclass = setosa", fillcolor="#e58139"] ;
0 -> 1 [labeldistance=2.5, labelangle=45, headlabel="True"] ;
2 [label="petal width (cm) <= 1.65\ngini = 0.5\nsamples = 62\nvalue = [0, 49, 52]\nclass = virginica", fillcolor="#f8f4fe"] ;
0 -> 2 [labeldistance=2.5, labelangle=-45, headlabel="False"] ;
3 [label="sepal length (cm) <= 7.1\ngini = 0.11\nsamples = 32\nvalue = [0, 49, 3]\nclass = versicolor", fillcolor="#45e789"] ;
2 -> 3 ;
4 [label="sepal width (cm) <= 2.65\ngini = 0.08\nsamples = 31\nvalue = [0, 49, 2]\nclass = versicolor", fillcolor="#41e686"] ;
3 -> 4 ;
5 [label="petal width (cm) <= 1.35\ngini = 0.21\nsamples = 11\nvalue = [0, 15, 2]\nclass = versicolor", fillcolor="#53e892"] ;
4 -> 5 ;
6 [label="gini = 0.0\nsamples = 7\nvalue = [0, 12, 0]\nclass = versicolor", fillcolor="#39e581"] ;
5 -> 6 ;
7 [label="sepal length (cm) <= 6.15\ngini = 0.48\nsamples = 4\nvalue = [0, 3, 2]\nclass = versicolor", fillcolor="#bdf6d5"] ;
5 -> 7 ;
8 [label="gini = 0.0\nsamples = 2\nvalue = [0, 0, 2]\nclass = virginica", fillcolor="#8139e5"] ;
7 -> 8 ;
9 [label="gini = 0.0\nsamples = 2\nvalue = [0, 3, 0]\nclass = versicolor", fillcolor="#39e581"] ;
7 -> 9 ;
10 [label="gini = 0.0\nsamples = 20\nvalue = [0, 34, 0]\nclass = versicolor", fillcolor="#39e581"] ;
4 -> 10 ;
11 [label="gini = 0.0\nsamples = 1\nvalue = [0, 0, 1]\nclass = virginica", fillcolor="#8139e5"] ;
3 -> 11 ;
12 [label="gini = 0.0\nsamples = 30\nvalue = [0, 0, 49]\nclass = virginica", fillcolor="#8139e5"] ;
2 -> 12 ;
}